{
  "format": "sawbot.waypoint.mlp/0.1",
  "modelVersion": "SawBotV1-Waypoint-0.1",
  "featureNames": [
    "target_right_norm",
    "target_forward_norm",
    "target_up_norm",
    "target_distance_norm",
    "support_left_safe",
    "support_center_safe",
    "support_right_safe",
    "void_clearance_norm",
    "front_left_safe",
    "front_center_safe",
    "front_right_safe",
    "landing_two_ahead_safe",
    "obstacle_feet",
    "obstacle_head",
    "hazard_front",
    "on_ground",
    "horizontal_collision",
    "velocity_forward_norm"
  ],
  "actionNames": [
    "STOP",
    "TURN_LEFT",
    "TURN_RIGHT",
    "FORWARD",
    "FORWARD_LEFT",
    "FORWARD_RIGHT",
    "JUMP_FORWARD"
  ],
  "hiddenSize": 32,
  "normalization": {
    "mean": [
      0.0453675240278244,
      0.3073289394378662,
      -0.0025009638629853725,
      0.46819010376930237,
      0.7947602272033691,
      0.8329711556434631,
      0.7916032671928406,
      0.49932625889778137,
      0.8760924339294434,
      0.8927310705184937,
      0.8884033560752869,
      0.8505042195320129,
      0.19327731430530548,
      0.020420167595148087,
      0.022058824077248573,
      0.9464705586433411,
      0.13668067753314972,
      0.32542684674263
    ],
    "scale": [
      0.41995564103126526,
      0.533454179763794,
      0.20244088768959045,
      0.30160459876060486,
      0.14975036680698395,
      0.131375253200531,
      0.1510946899652481,
      0.289363294839859,
      0.32950887084007263,
      0.3094402253627777,
      0.3148697018623352,
      0.35661619901657104,
      0.3948718011379242,
      0.14144407212734222,
      0.14687992632389069,
      0.22507555782794952,
      0.34355002641677856,
      0.3914041519165039
    ]
  },
  "weights": {
    "w1": [
      [
        8.985044479370117,
        -0.9075300693511963,
        -0.0863974466919899,
        0.24351735413074493,
        0.26525193452835083,
        -0.31003454327583313,
        0.12248753011226654,
        -0.1602708101272583,
        0.6164775490760803,
        0.18673405051231384,
        -0.20282714068889618,
        0.13341279327869415,
        2.616642475128174,
        1.565220594406128,
        -0.009122883901000023,
        0.031852684915065765,
        1.1721593141555786,
        -0.4526059031486511
      ],
      [
        0.736714243888855,
        -0.7827553153038025,
        0.3379281759262085,
        -0.21038903295993805,
        0.4397790729999542,
        -0.6532309651374817,
        0.07505518943071365,
        -0.2121274620294571,
        -3.470874309539795,
        1.5186067819595337,
        0.27334359288215637,
        0.3395225703716278,
        -0.06949245184659958,
        -0.6379659175872803,
        0.27413901686668396,
        0.24778756499290466,
        -0.7308923602104187,
        -0.1929323524236679
      ],
      [
        -0.19078198075294495,
        0.8978085517883301,
        0.09540890157222748,
        2.306596517562866,
        -0.3626357913017273,
        -0.7108387351036072,
        0.12664969265460968,
        -0.4732045531272888,
        -0.4439546763896942,
        -0.44564804434776306,
        2.535475254058838,
        -0.7054907083511353,
        -0.7444390058517456,
        0.8511414527893066,
        0.32685646414756775,
        -3.7139952182769775,
        0.5902339816093445,
        0.11831685155630112
      ],
      [
        0.4343484342098236,
        1.1226954460144043,
        -0.16457052528858185,
        2.688429594039917,
        0.03717535361647606,
        -0.04956652596592903,
        0.10981030017137527,
        -0.17717762291431427,
        -0.14823299646377563,
        -0.2511814534664154,
        0.05443767085671425,
        0.049682244658470154,
        -0.4048007130622864,
        0.06745724380016327,
        -3.1299402713775635,
        -0.11758174747228622,
        -0.05780594050884247,
        0.07980053871870041
      ],
      [
        0.06812968850135803,
        -1.449478268623352,
        0.2772443890571594,
        1.9303481578826904,
        -0.005526524502784014,
        0.9262626767158508,
        0.3056166470050812,
        0.4273970425128937,
        0.4914381802082062,
        2.7111425399780273,
        -0.9992006421089172,
        0.2853166162967682,
        0.7870889902114868,
        -1.1758217811584473,
        0.5927731394767761,
        0.38867267966270447,
        0.11076255887746811,
        0.02097933180630207
      ],
      [
        0.04352277144789696,
        -3.4523839950561523,
        0.12718312442302704,
        4.04280424118042,
        0.08051083981990814,
        0.00031525857048109174,
        -0.11921361088752747,
        0.03355636075139046,
        -0.026318330317735672,
        0.14781822264194489,
        0.03191705793142319,
        -0.16204528510570526,
        -0.09436251223087311,
        0.5724039673805237,
        0.16528679430484772,
        -0.025506561622023582,
        -0.08459656685590744,
        -0.018963241949677467
      ],
      [
        0.7218904495239258,
        0.5038383603096008,
        0.009141704998910427,
        -0.5278836488723755,
        0.07267739623785019,
        0.5380679368972778,
        0.2316628098487854,
        -0.12013915926218033,
        0.15343031287193298,
        1.8687429428100586,
        -4.514960289001465,
        0.0940193459391594,
        -1.2084012031555176,
        -0.34081175923347473,
        -0.5436813235282898,
        0.11533116549253464,
        -0.7121323347091675,
        0.08333870768547058
      ],
      [
        5.654938697814941,
        -5.278512477874756,
        0.08640846610069275,
        0.5743109583854675,
        0.06397895514965057,
        0.052726227790117264,
        -0.033153846859931946,
        -0.09239212423563004,
        0.17523249983787537,
        0.37417346239089966,
        -0.034489706158638,
        0.15892940759658813,
        2.067319631576538,
        -1.3733102083206177,
        0.06636394560337067,
        0.06789305061101913,
        0.8522935509681702,
        0.05205347388982773
      ],
      [
        -0.3897830545902252,
        -0.20807486772537231,
        -0.313993901014328,
        -0.3396679162979126,
        0.09208020567893982,
        0.9932475686073303,
        0.007653330452740192,
        0.15377210080623627,
        -0.05478847771883011,
        -1.978671669960022,
        0.19826993346214294,
        -1.734999179840088,
        -2.3050904273986816,
        0.9372233152389526,
        -0.045384082943201065,
        -1.6968204975128174,
        0.09332442283630371,
        -0.4074513912200928
      ],
      [
        0.04183560609817505,
        -0.20699065923690796,
        0.20319993793964386,
        2.550814390182495,
        0.25364017486572266,
        0.9451950192451477,
        -0.10138404369354248,
        -0.21772001683712006,
        -0.1723623275756836,
        2.3275797367095947,
        0.1874692142009735,
        -0.3477895259857178,
        -1.9069359302520752,
        0.5000139474868774,
        -0.2068409025669098,
        -0.17518280446529388,
        -1.3123607635498047,
        0.13825121521949768
      ],
      [
        4.967954158782959,
        -1.4029968976974487,
        -0.10203329473733902,
        -1.391085147857666,
        -0.011031873524188995,
        0.22809937596321106,
        -0.012409142218530178,
        -0.011626661755144596,
        -5.120136260986328,
        -0.2603905200958252,
        -0.03501347824931145,
        -0.18471930921077728,
        0.542080819606781,
        -0.04492422565817833,
        0.022835738956928253,
        0.046476323157548904,
        0.07603057473897934,
        0.05699639767408371
      ],
      [
        0.7057181596755981,
        -0.5657095909118652,
        0.11391029506921768,
        0.5109837651252747,
        0.4775909185409546,
        0.6478337049484253,
        -0.3033125102519989,
        0.3606829047203064,
        -0.21857640147209167,
        0.9898499250411987,
        0.1358099728822708,
        2.978020429611206,
        2.3227732181549072,
        -1.4048429727554321,
        -0.38614627718925476,
        1.8848316669464111,
        0.5865010619163513,
        0.08727041631937027
      ],
      [
        14.386493682861328,
        -0.8679789304733276,
        -0.1332155466079712,
        -0.6403809785842896,
        0.030135110020637512,
        -0.08818811178207397,
        -0.062015973031520844,
        0.005231832154095173,
        0.13583199679851532,
        -0.10676804184913635,
        0.10007822513580322,
        0.08250341564416885,
        0.1514628827571869,
        -0.09030833095312119,
        -0.041093859821558,
        0.10702201724052429,
        -0.1862339973449707,
        0.06331764161586761
      ],
      [
        2.204972505569458,
        4.732277870178223,
        -0.06345806270837784,
        -1.3193928003311157,
        -0.045254964381456375,
        -0.4319154918193817,
        0.02840270660817623,
        -0.24257180094718933,
        0.17334476113319397,
        2.2892088890075684,
        -0.019752148538827896,
        -0.12224853038787842,
        -1.854074239730835,
        -0.016480356454849243,
        0.3809678852558136,
        0.12205683439970016,
        -0.6209530234336853,
        -0.11790045350790024
      ],
      [
        -4.818347930908203,
        -1.8643712997436523,
        -0.09577593952417374,
        -0.8180525302886963,
        0.04911906272172928,
        -0.07205302268266678,
        0.0016656507505103946,
        -0.1057237908244133,
        0.11843257397413254,
        -3.5867109298706055,
        0.21028104424476624,
        0.2132418155670166,
        2.493605613708496,
        0.6946737766265869,
        1.1082487106323242,
        -0.18129433691501617,
        0.4675234258174896,
        -0.09756503999233246
      ],
      [
        1.4007985591888428,
        0.5475220680236816,
        1.130797266960144,
        -0.21200475096702576,
        0.4027077853679657,
        0.46772873401641846,
        -0.34546536207199097,
        1.292235255241394,
        -0.5357746481895447,
        -2.2871711254119873,
        -0.5340022444725037,
        -2.9471752643585205,
        -1.897121548652649,
        1.8707537651062012,
        0.3183860182762146,
        1.0199382305145264,
        -0.1488133668899536,
        -0.08674585074186325
      ],
      [
        -7.548495769500732,
        -0.30119752883911133,
        -0.12974634766578674,
        -0.34207722544670105,
        -0.08230209350585938,
        -0.1280989646911621,
        0.07803230732679367,
        -0.11695803701877594,
        -0.12872754037380219,
        -0.2254323959350586,
        0.45021679997444153,
        0.014646140858530998,
        -0.1248309314250946,
        2.1050848960876465,
        -0.009204152040183544,
        0.0082172816619277,
        -0.07693717628717422,
        -0.16423536837100983
      ],
      [
        1.701642394065857,
        3.708940029144287,
        0.18976563215255737,
        -3.1441571712493896,
        0.13898733258247375,
        0.3198428750038147,
        0.2337835729122162,
        0.12375136464834213,
        0.03809267655014992,
        1.103611707687378,
        0.041783787310123444,
        0.30115097761154175,
        -1.1145268678665161,
        2.8524959087371826,
        -0.06797205656766891,
        0.2839075028896332,
        -0.20522114634513855,
        0.010214305482804775
      ],
      [
        4.9486188888549805,
        -3.944646120071411,
        -0.1593695729970932,
        0.2557004690170288,
        -0.13759982585906982,
        0.02180422469973564,
        0.060016799718141556,
        0.15001533925533295,
        0.07994326949119568,
        -1.6349172592163086,
        0.00703888013958931,
        -0.08748818188905716,
        2.5405333042144775,
        0.6692178249359131,
        1.2747496366500854,
        -0.055645063519477844,
        0.9910771250724792,
        -0.15094047784805298
      ],
      [
        -16.227815628051758,
        2.042006015777588,
        -0.1843348741531372,
        0.17232102155685425,
        0.007150736637413502,
        0.04919235408306122,
        0.031788185238838196,
        -0.0030595646239817142,
        0.03978335112333298,
        1.5952982902526855,
        0.05675666034221649,
        0.06472065299749374,
        -0.424197793006897,
        -0.12799343466758728,
        0.15794984996318817,
        0.020590439438819885,
        0.818042516708374,
        -0.006781092844903469
      ],
      [
        1.3026338815689087,
        1.6605198383331299,
        0.029227497056126595,
        -3.645066738128662,
        -0.046124640852212906,
        0.3294047713279724,
        -0.03378872573375702,
        -0.16808654367923737,
        -0.12085171043872833,
        -2.5551095008850098,
        -0.19970305263996124,
        -0.3660472631454468,
        -0.0153939975425601,
        0.03379815071821213,
        -1.3625022172927856,
        0.1049480140209198,
        -0.029240962117910385,
        0.04085049033164978
      ],
      [
        -1.6081498861312866,
        -3.7253479957580566,
        -0.0376659519970417,
        0.692169189453125,
        0.19601626694202423,
        -0.45451995730400085,
        -0.05638011917471886,
        -0.017979668453335762,
        -0.3347167670726776,
        -2.979465961456299,
        0.15680570900440216,
        -0.0013393331319093704,
        -1.5915595293045044,
        1.2700144052505493,
        0.18425674736499786,
        0.1778177171945572,
        -0.4956001043319702,
        -0.20759811997413635
      ],
      [
        -4.696078777313232,
        4.788951396942139,
        0.1931373029947281,
        0.35583725571632385,
        0.178214892745018,
        -0.20009616017341614,
        0.025614846497774124,
        -0.012139638885855675,
        -0.22592201828956604,
        3.1372416019439697,
        -0.1607513725757599,
        0.18647103011608124,
        -2.47234845161438,
        0.6762121915817261,
        -0.2676367163658142,
        0.03483441099524498,
        0.2104775607585907,
        0.014329565688967705
      ],
      [
        -1.3623919486999512,
        -2.4302568435668945,
        -0.05569176375865936,
        -3.6522085666656494,
        -0.04411671683192253,
        1.2320464849472046,
        0.0936097651720047,
        -0.10291299223899841,
        -0.7894986867904663,
        -0.8759319186210632,
        0.1399177759885788,
        0.2749808430671692,
        -0.6204847693443298,
        -2.3559510707855225,
        -0.18855302035808563,
        0.27908775210380554,
        0.9574769139289856,
        -0.16497288644313812
      ],
      [
        0.3414444923400879,
        -8.47675895690918,
        0.06320247054100037,
        -1.577384114265442,
        -0.03714741766452789,
        -0.09368804842233658,
        -0.022760726511478424,
        0.0007623478304594755,
        -0.14063028991222382,
        0.03596474602818489,
        -0.035440921783447266,
        -0.01740485057234764,
        2.0325000286102295,
        0.8677425980567932,
        0.021735448390245438,
        0.0320199690759182,
        2.8107168674468994,
        -0.07653271406888962
      ],
      [
        -0.011378761380910873,
        0.6161651015281677,
        -0.07506167143583298,
        2.4212870597839355,
        -0.30430319905281067,
        0.5461267232894897,
        -0.05481500178575516,
        0.4886482059955597,
        0.284165620803833,
        2.683046579360962,
        -0.03477805480360985,
        0.03289012238383293,
        2.055288314819336,
        -0.0395849384367466,
        0.38822466135025024,
        0.4248639643192291,
        0.2156488448381424,
        -0.10812646895647049
      ],
      [
        -2.302260637283325,
        -6.916189670562744,
        0.0938105434179306,
        1.5566853284835815,
        0.03335811197757721,
        0.22035948932170868,
        0.04666229709982872,
        0.0113540543243289,
        0.1693408489227295,
        -2.9584171772003174,
        -0.059674765914678574,
        0.027297167107462883,
        0.25987425446510315,
        0.11504243314266205,
        0.3450619578361511,
        -0.01974378526210785,
        2.0079479217529297,
        -0.004869723226875067
      ],
      [
        0.04642641171813011,
        0.4470231235027313,
        0.19378426671028137,
        -2.458183765411377,
        -0.405850887298584,
        0.08698811382055283,
        -0.2920480966567993,
        0.07552395761013031,
        0.6587865948677063,
        0.35754361748695374,
        0.17736835777759552,
        -0.7496905326843262,
        -1.6343038082122803,
        0.629423201084137,
        0.10302138328552246,
        0.3316704332828522,
        -0.24634911119937897,
        0.11700668931007385
      ],
      [
        0.27899792790412903,
        4.122106552124023,
        0.015178566798567772,
        0.41194722056388855,
        0.140877366065979,
        0.3178502023220062,
        -0.203848198056221,
        -0.17115110158920288,
        0.02955833449959755,
        -2.2951161861419678,
        -0.30085626244544983,
        0.5279654860496521,
        0.8483993411064148,
        1.5352253913879395,
        1.0520755052566528,
        -0.02192494086921215,
        0.0071806712076067924,
        0.08309726417064667
      ],
      [
        1.820603370666504,
        -4.4727888107299805,
        -0.024741629138588905,
        0.5309742093086243,
        0.1339307725429535,
        -0.6616417169570923,
        -0.19096849858760834,
        -0.3845084607601166,
        -0.46334633231163025,
        -2.565415382385254,
        -0.1992240995168686,
        0.10616394132375717,
        -0.5852221250534058,
        1.8676997423171997,
        -0.04664716497063637,
        0.05674157291650772,
        -0.9839727878570557,
        -0.038148656487464905
      ],
      [
        -11.571450233459473,
        -1.914409875869751,
        -0.008070333860814571,
        0.09448321163654327,
        0.024458013474941254,
        0.0007999817607924342,
        -0.053628258407115936,
        -0.026157140731811523,
        0.02378586120903492,
        -1.427635908126831,
        -0.041601311415433884,
        0.020171204581856728,
        0.7076698541641235,
        0.2951519191265106,
        -0.03180961310863495,
        0.06001102924346924,
        0.24435223639011383,
        0.059177301824092865
      ],
      [
        1.8851813077926636,
        4.186013221740723,
        -0.02046411670744419,
        -1.0529357194900513,
        0.3152996599674225,
        0.49409306049346924,
        -0.4374617338180542,
        -0.046224214136600494,
        0.0786074697971344,
        1.0151326656341553,
        0.22618772089481354,
        -0.09978652745485306,
        -1.9591771364212036,
        0.13129672408103943,
        0.4596269130706787,
        -0.6454058885574341,
        -0.05153224989771843,
        0.13738135993480682
      ]
    ],
    "b1": [
      0.8946605920791626,
      1.5433109998703003,
      -1.6905077695846558,
      3.9669315814971924,
      1.53061842918396,
      2.8226258754730225,
      3.1262879371643066,
      -1.041345238685608,
      4.1684041023254395,
      -2.0931906700134277,
      0.3788978159427643,
      -3.2645678520202637,
      -0.5191652774810791,
      -1.99066960811615,
      -1.1579203605651855,
      1.5356476306915283,
      -2.6550416946411133,
      -1.8990026712417603,
      0.45471999049186707,
      -0.5646307468414307,
      -2.731478691101074,
      0.854163408279419,
      -0.44217097759246826,
      0.6898970603942871,
      -3.335948944091797,
      -2.2065484523773193,
      0.8341202139854431,
      1.650577187538147,
      0.9602929949760437,
      -0.01933307573199272,
      -1.2325962781906128,
      -1.7477214336395264
    ],
    "w2": [
      [
        -0.44222915172576904,
        0.9565137028694153,
        0.4752737581729889,
        -2.7133333683013916,
        -1.8222626447677612,
        -3.2163074016571045,
        0.3174445331096649,
        -0.06320393085479736,
        -3.0610501766204834,
        -2.029231071472168,
        -0.6969857811927795,
        -1.8325865268707275,
        0.036565151065588,
        -1.8789833784103394,
        0.851767361164093,
        -0.14112810790538788,
        -1.8849334716796875,
        -0.5161791443824768,
        -0.9086323380470276,
        -3.013582468032837,
        1.6460391283035278,
        1.3823813199996948,
        -1.9206585884094238,
        -4.213874340057373,
        3.893876314163208,
        -2.2329227924346924,
        3.906681537628174,
        0.3995361924171448,
        -3.3960154056549072,
        0.12222111970186234,
        3.3402700424194336,
        -1.3053855895996094
      ],
      [
        1.857487678527832,
        -2.188333749771118,
        -0.7876108884811401,
        1.9428950548171997,
        1.9224990606307983,
        2.666685104370117,
        4.527533054351807,
        2.5754363536834717,
        2.136002779006958,
        2.8333137035369873,
        -1.9642633199691772,
        -0.6102290153503418,
        -1.0149487257003784,
        -2.893450975418091,
        -0.5397836565971375,
        -0.30458468198776245,
        3.746263265609741,
        -3.1048595905303955,
        2.505258560180664,
        -0.8300619125366211,
        -1.9590141773223877,
        2.9748189449310303,
        1.4224317073822021,
        0.34665268659591675,
        -0.08808179944753647,
        -2.259354829788208,
        3.192204713821411,
        2.6473195552825928,
        0.10744646191596985,
        1.0545746088027954,
        0.7848625779151917,
        -2.1107678413391113
      ],
      [
        1.1938161849975586,
        2.3449506759643555,
        1.3779850006103516,
        1.7606292963027954,
        -0.11303325742483139,
        1.376139521598816,
        -4.341277122497559,
        2.7591333389282227,
        2.7079825401306152,
        -1.163631558418274,
        3.9028496742248535,
        -2.501298189163208,
        3.349816083908081,
        -0.6450635194778442,
        2.5923709869384766,
        1.5304269790649414,
        0.6228581666946411,
        1.1978956460952759,
        2.6716887950897217,
        -0.39187881350517273,
        -0.4162588119506836,
        -1.405974268913269,
        -1.5476956367492676,
        2.113032579421997,
        -2.0557949542999268,
        0.32494908571243286,
        -1.7402946949005127,
        -0.6784133315086365,
        0.5364430546760559,
        1.9356096982955933,
        -0.6169507503509521,
        0.20327307283878326
      ],
      [
        -2.0357022285461426,
        -0.12350202351808548,
        0.2717500627040863,
        -0.8418459296226501,
        -0.5097897052764893,
        -0.6196015477180481,
        -0.5533065795898438,
        -1.0523090362548828,
        0.5700982213020325,
        1.8300975561141968,
        -0.6430068612098694,
        0.9159030318260193,
        -4.57513952255249,
        2.855264663696289,
        0.08543339371681213,
        0.5147091746330261,
        -3.1435513496398926,
        1.755383014678955,
        -0.17718037962913513,
        6.606468677520752,
        1.2802938222885132,
        -1.5160783529281616,
        1.265298843383789,
        0.07902155071496964,
        -0.4796460270881653,
        0.9614841341972351,
        -1.706739068031311,
        -0.4292847514152527,
        1.8260126113891602,
        -0.9382193088531494,
        -8.770124435424805,
        1.8692926168441772
      ],
      [
        -1.6749838590621948,
        -1.3741384744644165,
        0.5505360960960388,
        -0.13620923459529877,
        -0.4174900949001312,
        -1.4849152565002441,
        0.8050069212913513,
        -0.3367210626602173,
        -0.0937514677643776,
        0.7933344841003418,
        -0.35898062586784363,
        0.7286535501480103,
        -2.4746127128601074,
        2.768267869949341,
        -5.383739948272705,
        0.10685695707798004,
        0.44361063838005066,
        2.3468661308288574,
        -0.4869643747806549,
        2.1113266944885254,
        0.4937187433242798,
        -1.53269624710083,
        -0.12280569970607758,
        -0.0915992334485054,
        -1.081274151802063,
        1.463088870048523,
        -3.874939441680908,
        -0.7555153965950012,
        0.706733763217926,
        -1.2834171056747437,
        7.862127304077148,
        2.2894837856292725
      ],
      [
        -0.2697233259677887,
        -1.0073699951171875,
        0.452968955039978,
        -0.8464205265045166,
        -0.46701452136039734,
        -2.1868090629577637,
        -0.2450747787952423,
        -5.529833793640137,
        2.033419609069824,
        0.8897106051445007,
        1.1812970638275146,
        1.1351298093795776,
        3.0034759044647217,
        1.6377482414245605,
        -0.08089789003133774,
        0.24281378090381622,
        -1.350719690322876,
        0.09286393225193024,
        -3.938796043395996,
        -3.7357959747314453,
        0.9851472973823547,
        -1.4598801136016846,
        2.511542320251465,
        2.2835745811462402,
        -1.8945268392562866,
        2.4234073162078857,
        -1.5515151023864746,
        -1.1433813571929932,
        0.9996922612190247,
        -1.6343039274215698,
        -1.7099305391311646,
        1.0413322448730469
      ],
      [
        1.1699386835098267,
        1.5698057413101196,
        -3.084470272064209,
        1.6002936363220215,
        0.9178313612937927,
        3.957288980484009,
        -0.1283780187368393,
        0.8894306421279907,
        -4.0193095207214355,
        -1.3644708395004272,
        -2.999419927597046,
        5.457196235656738,
        0.8145231008529663,
        -1.3077553510665894,
        1.4869236946105957,
        -2.9318552017211914,
        -0.31299933791160583,
        -0.9572389125823975,
        0.7320595383644104,
        -0.5698127746582031,
        -3.0256407260894775,
        -0.5426483154296875,
        -0.9611678719520569,
        1.1549808979034424,
        0.9153978824615479,
        1.5435093641281128,
        -0.968300461769104,
        -2.11268949508667,
        1.1401675939559937,
        0.5992677211761475,
        -0.8951704502105713,
        -1.380832552909851
      ]
    ],
    "b2": [
      2.178980827331543,
      0.18060605227947235,
      0.77720046043396,
      -1.502435564994812,
      -0.8288887739181519,
      -1.4198893308639526,
      0.09057335555553436
    ]
  },
  "training": {
    "seed": 5102026,
    "datasetRows": 28000,
    "trainRows": 23800,
    "validationRows": 4200,
    "epochs": 90,
    "batch": 256,
    "learningRate": 0.012,
    "trainAccuracy": 0.9912605042016807,
    "validationAccuracy": 0.981904761904762,
    "trainingSeconds": 2.0161019549999537,
    "datasetHeader": {
      "format": "sawbot.waypoint.teacher/0.1",
      "seed": 5102026,
      "featureNames": [
        "target_right_norm",
        "target_forward_norm",
        "target_up_norm",
        "target_distance_norm",
        "support_left_safe",
        "support_center_safe",
        "support_right_safe",
        "void_clearance_norm",
        "front_left_safe",
        "front_center_safe",
        "front_right_safe",
        "landing_two_ahead_safe",
        "obstacle_feet",
        "obstacle_head",
        "hazard_front",
        "on_ground",
        "horizontal_collision",
        "velocity_forward_norm"
      ],
      "actionNames": [
        "STOP",
        "TURN_LEFT",
        "TURN_RIGHT",
        "FORWARD",
        "FORWARD_LEFT",
        "FORWARD_RIGHT",
        "JUMP_FORWARD"
      ],
      "rows": 28000,
      "classCounts": [
        4000,
        4000,
        4000,
        4000,
        4000,
        4000,
        4000
      ]
    }
  }
}